digraph Tree {
node [shape=box] ;
0 [label="Petal.Length <= 2.45\nentropy = 1.584\nsamples = 120\nvalue = [41, 41, 38]"] ;
1 [label="entropy = 0.0\nsamples = 41\nvalue = [41, 0, 0]"] ;
0 -> 1 [labeldistance=2.5, labelangle=45, headlabel="True"] ;
2 [label="Petal.Length <= 5.05\nentropy = 0.999\nsamples = 79\nvalue = [0, 41, 38]"] ;
0 -> 2 [labeldistance=2.5, labelangle=-45, headlabel="False"] ;
3 [label="Petal.Width <= 1.65\nentropy = 0.496\nsamples = 46\nvalue = [0, 41, 5]"] ;
2 -> 3 ;
4 [label="Petal.Length <= 4.95\nentropy = 0.169\nsamples = 40\nvalue = [0, 39, 1]"] ;
3 -> 4 ;
5 [label="entropy = 0.0\nsamples = 39\nvalue = [0, 39, 0]"] ;
4 -> 5 ;
6 [label="entropy = 0.0\nsamples = 1\nvalue = [0, 0, 1]"] ;
4 -> 6 ;
7 [label="entropy = 0.918\nsamples = 6\nvalue = [0, 2, 4]"] ;
3 -> 7 ;
8 [label="entropy = 0.0\nsamples = 33\nvalue = [0, 0, 33]"] ;
2 -> 8 ;
}